function [Y,Xf,Af] = myNeuralNetworkFunction2(X,~,~)
%MYNEURALNETWORKFUNCTION2 neural network simulation function.
%
% Auto-generated by MATLAB, 26-May-2021 13:56:22.
% 
% [Y] = myNeuralNetworkFunction2(X,~,~) takes these arguments:
% 
%   X = 1xTS cell, 1 inputs over TS timesteps
%   Each X{1,ts} = 25xQ matrix, input #1 at timestep ts.
% 
% and returns:
%   Y = 1xTS cell of 1 outputs over TS timesteps.
%   Each Y{1,ts} = 4xQ matrix, output #1 at timestep ts.
% 
% where Q is number of samples (or series) and TS is the number of timesteps.

%#ok<*RPMT0>

% ===== NEURAL NETWORK CONSTANTS =====

% Input 1
x1_step1.xoffset = [3819;-323;187.89;4179;-390;175.28;4062.16;-723.5;167.1;3922.5;-420;373.03;4172;-420;373.03;4066.5;-695.5;374.1;4030.5;-740.5;208;3960.5;-310;227;-60];
x1_step1.gain = [0.00865800865800866;0.00314465408805031;0.00648445352267938;0.00904977375565611;0.00678241996744438;0.00645744543458608;0.0145095763203714;0.00652592423401964;0.0142612664004564;0.0117647058823529;0.0066862797539449;0.00700599012155393;0.0116822429906542;0.0066862797539449;0.00742252737056968;0.0586510263929612;0.00707714083510262;0.025;0.00854700854700855;0.0052317672909909;0.0126462219411951;0.00701754385964912;0.00823960779466897;0.00579710144927536;0.00769230769230769];
x1_step1.ymin = -1;

% Layer 1
b1 = [-0.037701546641486005651;-0.050623824529300386066;-0.0015544712988349908018;0.076146550630978734886;-0.0706243557832012675;0.35274764232775762673;0.0047147825453104806256;0.092348203445835552738;0.10995273876991945583;-0.0080469560807218502851;-0.11482418166875521526;-0.16556207406412623562;-0.015861762902664947733;-0.022813140097635371123;-0.55804131860850547664;0.088058851969013043903;0.13053834780897924372;0.13058411029307134821;-0.16945125492766827113;1.0096577019544261677;-0.094756712085144148561;-0.23442645435486422767;0.033710954324182244857;0.096132001845102121873;0.64148479652917145266;0.047883830174015235004;0.28564079345507997765;0.0065230144578118272325;0.21756741599842199797;-0.065795543849491489041;-1.9468219402149278263;1.3864584012931617796;0.21527820985250215036;0.44514359957671267853;0.36404353726915822387;-0.56977481687967990176;-0.42049431405637333059;0.055910021723162284246;-0.18554065474017406023;-0.20543158198847286111;-0.04413444121019859806;1.9550170626461456092;0.062740987958672569946;0.30033750249158908119;0.73662179210658340622;0.043146392129490382383;-0.061059905555867766136;-0.73757346225437403486;0.26895999383860708098;0.95746906427252687077;0.25546609149833304775;1.750683204532874182;0.46170921331573239188;0.15802526281285611542;0.079347348225908317931;0.07392957772430547303;3.7877154121900664663;-0.20167853077621353264;-0.0092535408269159256933;-0.0773493450705106389;0.045292954800645997271;-0.10910136528411547296;0.09672106141709238547;0.44807550193725537158;-0.10564087191797592868;0.6064413295853303687;0.056717675233078426733;0.42284860633479703917;0.46529749430026767776;-0.020022987360841217053;-0.10300807852803300912;-0.069263652113793885978;0.09197931949004532759;0.0047679150117469239201;0.20432104151360608313;0.038449552970889526449;-0.10845144480262841613;-0.35501907641370794577;-0.12435099773012653346;-0.13591143194993623999;-0.007734516563558838792;-0.055344232490587078055;0.55803060015990857412;0.0038933808442320892891;0.027841354782486709557;0.0377822809720070249;0.1909450652514200486;-0.033067683005319842282;-0.13599537290216273666;0.010582023511177455696;-0.06278700218985716619;0.032877712421541381571;0.021624298780048820806;0.029333603040719004318;0.016245704172835950113;1.8894675315719791087;0.015736122394738479707;-0.051494790323276008748;0.42606490837953608919;-0.37669437999532190409];
IW1_1 = [0.090723325550343583701 -0.020484389943103059606 0.089810060520132947715 0.073782692275379785363 -0.037462652780255928375 -0.011607210796693093191 -0.0030330269533207446925 -0.10391971693684924627 0.047921485872511049298 -0.17022722643569887513 0.022206553770692291638 -0.093689143826445414609 0.039682407294252132479 -0.0094169986414185408857 -0.10021585733414119235 -0.027574669912901673963 -0.019372633925304381941 0.059581042353893658159 -0.069351695538003022001 0.058915673034370390215 0.081421317748298568939 -0.056165260002245920301 0.034565692408277795544 0.10818000964508990569 0.083519364883791913368;0.016233574909972195432 0.095925149111349500286 0.33939916598335262421 0.35187513229219063993 -0.13830051340252383363 0.18419442349071829534 -0.30310699229176857328 0.67468658686629756627 0.03774968537222333359 -0.30235996263852643606 0.088858534033013109044 -0.078506050788672829266 0.17305594720237138517 -0.17321215003514772723 -0.35149323572300406049 0.4601693396012938031 0.43847309673929973917 0.0013769417373148567542 -0.17398541369484143981 0.3001896881764374303 -0.32378489570667490227 -0.2493904114188039145 0.099084111565274760047 0.029155596811050860789 0.76522305760859421486;0.33403349241660618141 0.12419692278475637226 -0.061180396262017079645 -0.31959876360553757246 -0.11147368998451939737 0.095077192317740658045 -0.37696456567216563016 0.34650103816374638876 0.052563103197813425271 0.021210217861778696974 -0.14700732403047053753 -0.23570281527740527538 0.10730846726555232085 -0.045784180978388766547 -0.022704413054755980678 0.1907943936665169038 0.052686876411108571339 0.021392630441929860047 0.33819762840393652326 0.039042608327844528782 -0.10361651522078305088 0.0041397448136300755289 -0.064037244053365555141 -0.070161063745457497021 -0.24312499295563719248;-0.27430645497649508435 0.022433062349559006882 -0.032235475650995368269 -0.19712406283215935798 0.13758763150385855401 -0.01468711679175584324 -0.040529320029987152274 0.15903324273219562879 0.012610495172974901107 0.33548202899526363696 0.042278572759785783275 0.094663075235361257564 0.045093894725209963947 -0.032951765738985651366 0.14771300618525343151 0.17120038873131410151 -0.10453562127275649318 0.046744666186750882808 -0.12749916987676315761 -0.052039574180536243841 0.0018307843337241806823 0.074897598269655460412 -0.12720263410789750536 -0.15857940195436479036 -0.10920719820004079481;0.15285423615266865993 0.082024137075040345901 0.050410296518050880243 0.16877633649900830592 -0.064532397252893738959 0.19449004560052390866 0.1784552539815994765 0.05940984294719806047 -0.0062004720667822145821 -0.23362708063492304555 -0.10778405494906070916 0.26204267733612518487 -0.071501808289420862308 -0.20573241659509031165 0.11656842345931421601 -0.32280349182625328597 0.012098066536761506104 0.017714863431951232559 -0.052619615114284860879 -0.078479559356887385047 -0.16445777273045855682 -0.33155569341028190422 0.063763904110157657024 0.14664916027867602732 0.21588709420728133259;0.035848961484542272993 1.0771296229798543731 0.11257636653110950076 0.088906995283927273133 -0.52625923438138777488 -0.049286422605989650692 -0.084249242856264727752 0.014009775374256600022 -0.1606830421579174828 0.039800024731604120853 0.29884869539935055016 -1.1647201236721820283 0.045552993316213825914 0.0029450304204461296917 0.025988883129314792331 -0.18989158969867983573 -0.021272741203718817382 0.46176910072975124733 0.027858259346365963488 0.30383530112975765114 -0.026485010020506072337 0.079208067983065941209 0.18410001403043627088 0.12794962413560925785 0.6827675794235250617;0.10203792083963801607 0.030782387740874904425 0.12675149489579648487 0.081399198562955910052 -0.015594264863509395974 0.055890058388086007179 0.03988074214850800131 -0.2711968741750663825 0.16843123575462295993 -0.080900634054902970105 0.0030708335327229467279 -0.076725351346095607696 0.033734937596134863258 -0.0045944267304598909035 -0.20240329879318758044 0.023670588416222975575 0.1477573464733945019 -0.010609464078999757131 -0.010536919986179626302 0.047288591705108254382 0.012242698664439157982 0.015029229373647741072 0.040766192093616933356 0.079511562121890547172 0.023354107598322210171;-0.28077916032263672275 -0.061842353176403894177 -0.23550441219531054182 -0.078444068451558074395 0.030363716945253152457 -0.08361536979496152211 -0.014328421490913342135 0.28729153905509308142 -0.27440218679624367448 0.28820072710517613546 0.052783421090597214265 0.10816757008473487645 -0.052004593051855556307 0.23194456282557074367 0.24113467501371840807 -0.1086283293703947106 -0.038070427795651826108 0.065294627609507022159 0.12521652873651040183 -0.097451244786018922928 -0.11434442562874082283 0.099311221306736086056 -0.13309868079694495147 -0.21554114488147696482 -0.031165286185492965115;0.087018135026357787409 -0.37644363862420093803 0.11824340045147847811 -0.049189829074119034713 -0.18500270526728998521 0.020064903158471734251 -0.063697297279518061419 -0.24444465620580460574 0.28861823697852928561 0.16571642190033925024 -0.20579917789751195345 0.11860988764799756945 0.16886443666195005697 -0.38121033758549816017 -0.14021246632350750638 0.19548419583988022041 -0.13187741418020446083 0.027170058452184626951 -0.092714686459649642281 -0.031818807190523754058 0.11036371493219282458 -0.20090143965534659753 -0.016041381601894635217 0.33393920267608900865 0.41129164992260824896;-0.094776761893308178464 -0.069223010855616134984 -0.019618706722503306827 -0.038687856659059931264 -0.0048064388042585899641 -0.074164761927928812835 -0.036398684625255944836 0.10354779604274774729 -0.0032197203746300103074 -0.040752721080251783081 0.028106776467791222407 -0.028563403493169752662 0.0097863608320744605723 -0.0056664207563495638462 0.0330723298561312537 -0.036300021137968374596 -0.058233205738760909775 0.05821057322621202984 0.012590791782308419916 0.043144606114662788221 0.063137900879703362511 0.0058345930277482853377 0.034870769492364485365 0.01510573911493913804 -0.027382254371365918888;-0.14877007259968957897 0.13874783030742199319 -0.11138549586780445433 0.14077394439906584789 -0.078533419048712763133 0.11642246860723727553 0.052001209069661769036 0.14555451392288720758 -0.26221023842805413206 -0.17975396619549027788 0.034321953222301533615 -0.08635435291013815462 -0.29507869782414664073 0.31205731755486842971 0.14348876911381902577 -0.56583409702883402659 -0.11961058414308982367 -0.12177825949881168621 0.2612177322349998887 -0.054978417988002140082 0.016293225954642234776 0.045352033367723205981 0.10035550267140924685 0.068852987149456063021 -0.58712975332334405021;0.24209057202028497202 -0.59386351707517581744 0.39116427005660597827 -0.077179734136938973887 -0.23986164763384076881 -1.0613988267680320998 0.39440601966212307516 0.37475094788666468704 0.5825428583436157437 0.06450092334540226402 -0.17062252555141940724 -0.22841148188548229814 -0.060689195647427682245 -0.48974461414453268615 0.35409770264930523487 0.035671641500228931654 -0.058908166054541896695 0.040497133993657931372 0.037858565957623345477 0.12094930947867851834 0.0046787716986695431984 0.10207293507176924685 0.13143920986091581216 -0.34493657519071896367 0.41670717141319085774;0.015984788663440673701 0.13844807674831269284 -0.04427669560956273842 0.063572797204956302264 -0.020653455011118183882 0.067126005559717344395 0.085927806247654434091 0.025451587514157800879 -0.075768308408752718663 0.14154797195496790496 -0.021478843272776701467 -0.057805934911741727045 -0.025674790989223612164 0.10371428737614267479 0.038753748828146035443 -0.098295208953663296136 -0.10373670143673151267 -0.05085380025664987258 -0.0080255164686863882106 -0.030209688097654275457 0.024223585027269994158 -0.05155414106436954913 0.0040617746401425082123 0.021468119530845611309 -0.083211216558340087013;0.050702860894144129167 0.034011075591040780541 0.030650752989442298785 0.16600608663867044701 -0.059634155250700905671 -0.059261474194510041502 0.071097248217533409731 -0.32593267811163545433 -0.02125657900085385632 0.13662722365808979696 -0.086527039152962822999 -0.029216962258964345595 -0.03353403274784954452 -0.083353617630175735886 -0.23542080571014373236 0.058006523819004986164 0.053643585454008803348 0.16262665248799187956 0.095481365651137573014 -0.10345880590000960941 -0.12524752984051149007 0.13711010430301881491 0.033065395565888493212 -0.12634266629869969623 0.10884977683204542787;-0.033178782923882946254 0.018633735170038960571 -0.19618643438978855542 0.28035381926050756407 0.32630408309071246009 0.16385409439029666179 0.18214726081494436727 -0.024559785968133570483 -0.11255098149463148294 -0.15805162303512074184 0.38335685555507792444 0.32314662245667513663 0.23158950021268867592 -0.37080001767732712059 0.053401061849477703125 -0.68470775426924712637 -0.29361126038097851154 -0.13796855781033032229 0.3931307334507546658 -0.064928103590667168854 0.64494878446489389834 0.042818277022311258817 -0.02082208364675359677 -0.041017040125294446096 -0.91917635224945326566;-0.037891345327543915489 -0.057537813112064989385 -0.065391837294261012659 0.21053172929911337374 -0.029452159706912135057 -0.14989105961696724822 -0.15902144916545851716 0.1797982131651464921 -0.0063136621544916072743 0.013757954533733424834 -0.021465203136940960715 0.042704339859800245771 -0.01811029711689116431 -0.30838471531468669706 -0.013275686305078453903 0.30646908946824824582 -0.14262630577980156543 -0.017599096211474502677 0.078583166515441366107 -0.15753225649517690887 0.087839324762870554797 -0.082351416053251025318 -0.13392973442063790812 -0.18147698380108537308 0.5568640408103963102;-0.024012902240202388393 0.9557728736913039258 -0.058237832156155723562 0.0091615496472042864257 -0.61907369019261859755 0.17448573732826119786 -0.04499116717211514016 0.12207868622248353729 0.036716085097327322284 0.23246244986133610122 -0.29481619512632178948 0.35846249810293590032 0.0050743307366962241492 -0.15889535473644367247 0.046795834719198729779 0.19960264833890703495 0.26570504769152941682 -0.084182436824426151722 -0.17302899336486898818 -0.29719295072543561176 -0.093432883756743120851 -0.33269663220281486815 -0.17062562485324300754 0.018663686533810442542 0.91496549464377341376;0.54050052432835249405 -0.37369175527673359483 0.077760086433521044547 -0.015932760659573691475 -0.0077703354664958625142 0.16514458084284841521 -0.052352983794925735117 0.058528882792443184813 0.14315190815906919664 -0.13945371301958031651 -0.02254856103911299231 0.32032209345667228551 -0.076982620738673998573 -0.22576383925573056954 0.15326844635628320002 0.01424342997927431978 0.31508228350416517261 0.028574838608061585432 -0.39003652904064961549 0.11300288734862488915 -0.092753049828182276837 -0.037687079665492201341 -0.34743268839790858449 0.30871284307181484641 0.34819938451016552161;-0.17073008750544688139 0.22434570252001326263 -0.027959109916979408422 -0.30456687045401109604 -0.055927554437587359559 0.32266079517596929493 0.18361506171009356336 0.095843283385815186692 -0.063881118118425284091 -0.010710509535241583695 -0.11791945659723723772 -0.44703512298178549322 -0.31691025119616600403 0.14635037325553965082 -0.62863864188284446222 -0.074835754155370484697 0.036340627500541011763 -0.16524489919628063128 0.36806901117380502741 0.060881214258556706764 -0.062150458498034098775 0.029210983254138293136 -0.49717672794508760425 -0.12592937002429746562 -0.72738481284053424503;-0.29112513279531898602 2.5374097191103746063 -0.29242710148135692139 0.2858806542384579874 0.26004546408975964811 0.062369921540968202567 -0.40215779984428284832 -0.22156221593308700335 0.22675284277470478256 -0.051435171288245033761 0.054300892438864718781 0.57553362368815785821 0.076630668537575094557 0.37745926328590218013 0.48607962337455601354 -0.0068127937436171280908 0.69159808532875477471 0.54476938197865609759 -0.25672907505144032525 0.16535508597693451827 0.18338757167527294789 -0.525741230866757836 -0.72587604830645746645 0.36516447043011934781 0.98168876888353751031;-0.10166267726443774244 0.14800546427624486356 -0.0022266030889831079503 0.15050525257756947051 -0.022003327915617400951 0.023992265267178011084 0.090477791958109218817 0.23991316570240850403 0.0122322021336882681 -0.15541339745320992272 0.096572672371552759074 -0.24511802592934844869 -0.29036331370121049034 0.20208283276340405221 -0.10237016148945153604 -0.13908836389932671684 0.055944305539741917555 -0.12728524655727962989 0.17682863316337216197 0.11134091953402223962 0.20301714047317862 0.075038050028837899319 0.1218774752345874457 -0.033016254147134910246 -0.39417702023031381264;0.085541202819397074708 0.021542237217615171213 -0.08657567093379776868 0.060204562686880958022 -0.050592928517709807867 0.0058668522851302975021 0.029623773164806313507 0.19646523299868953738 -0.21045257177358142608 0.227862642529163828 -0.007926877877349081114 0.25005584108543421618 -0.15618953304939633964 -0.21108452469096780635 0.066708721163622655692 0.074129351287664430048 -0.17002683319817685215 -0.2625216521034791084 0.039559217440350728789 -0.0095581816314830245207 -0.20504897705201713398 -0.026368293044551561338 0.058846116250744144593 -0.10473543624932754592 -0.25900079862590469348;-0.22900382970580121511 0.078000040256405833716 0.10405803495724763597 -0.12327023663001059062 -0.11407158628386082633 0.21817143906971966927 -0.0038788848712443240591 0.050122036675755494983 -0.082798637548578649104 -0.028987754661555575203 -0.13721646627250841388 0.17305881301286110685 -0.064872896129242657581 -0.19052495462479837607 0.13767919147657251 0.010569300926933724444 -0.00030049747795088258603 -0.11076049503474180713 -0.032851712296713631023 -0.12032058370484051413 -0.13069984780470134123 -0.1073431060654067154 -0.24414246229147057443 -0.030840265932010408473 0.18211663361499708103;-0.36598844340544434139 -0.17869322149856486925 -0.10333938573218601209 -0.14211154180938567748 0.017081638998176228855 -0.25013975333582866289 -0.29450245334270813702 0.16392887055603563851 -0.18148770409581141405 -0.54851143297224225215 0.20512423220874340113 -0.30607254477762502187 0.14189904461259014723 0.12538514326835994983 -0.16077856122267192296 0.38572920391741388757 -0.23309297446033774848 -0.12584282153585274466 -0.079906346683233153705 0.16318237183186531936 0.025687718791198275309 -0.12494855904246948697 0.33967633281631826048 0.17377669345426408065 0.031602269335940534611;-0.19169789687530955358 -0.36723260158216841642 -0.014060443066873139564 0.056277750390259013991 -0.3027520338538545186 -0.30542416104628616891 0.20827925613704714736 -0.10543190265507144943 0.12600667440159996069 -0.060861801923075282972 -0.0044434300347451147206 0.90232714393686863641 -0.39422744941090243076 0.059554199957023323808 0.22238478672855688245 -0.23647442686461517258 0.89937517997602101083 -0.52648179987769883059 0.039908263547360781076 0.32063615102283993252 0.16433760683455478357 -0.0030641465251655080997 0.25642863097050472287 -0.20751468378220486177 0.66431619871068492422;0.11968193292114776005 -0.42753877140432572368 0.13824131105375384032 0.21366330494435509246 -0.11386946654401355894 0.016772346831922128885 -0.10191894573808082947 0.21078461764252909294 0.016991784661119696542 0.15864463731204217489 0.12318390227811873427 -0.0027402121175810396393 0.14419277635171426355 -0.12310206464986425678 -0.11469747181544802384 -0.20511738071111221271 0.037438183803075085476 -0.39193129785021851852 -0.17881181563761117115 0.16285875783278724871 0.011138587311068953722 -0.095829063563867902809 -0.031129373286347322702 0.1857357858519777527 -0.15177021826643571911;0.20253535188138591105 0.1406515863459361082 -0.18870394537007079139 0.43638653003404997976 0.013694157155247790522 -0.15811228658798182067 -0.16172182303676138626 -0.47954276769822234971 0.035583907744629619807 -0.10571603522465058966 -0.05361626297626496257 -0.21003989492309863008 0.10111378070802359841 0.16584282680845410796 -0.091844680412177248652 -0.26944119936297272755 0.036882778585697433005 -0.2100219216583455728 0.074910278062035401403 -0.17753496156891274138 -0.12808549611176295313 0.095837957932292064389 0.022197874200416300994 -0.0068847021450768458584 -0.24412722414693230344;-0.080685526958666417552 0.013056880210659415134 -0.016797913770974112063 0.02964917221808820863 -0.0011313064068237971976 -0.030808956401560821242 0.022913862318125203382 0.037329827810819102285 -0.023569967583079207141 -0.04016532993940066798 0.01411130033234992906 -0.097524136485961254728 -0.021721900746258009096 0.12190301163083371028 0.071964964693469898882 -0.028939668428335944828 -0.06585842892613029409 0.042089955953040228409 0.0031524109847641868833 -0.0079753746184819482995 0.11521417205497021252 -0.0015435437717418781702 0.059961361551325781383 0.04114306403910551746 -0.10215415420521962997;0.2229475697283105351 -0.22991733014204121521 -0.10974269201214628677 -0.061585380226474736864 0.038684798107186835203 0.25951923188319730995 0.11820594852146790177 0.28765465055798505878 0.20755781882857146647 -0.4238265359249723252 -0.073131981776676110996 -0.48583608876508843633 0.1148666164678391749 -0.18828081808477181713 -0.01686950727195035693 0.23987878836344184164 0.32025802379205903225 -0.0329631275038561114 -0.30712917072839041044 0.11810258154510018536 -0.001565764957188377042 0.047490231102779681405 -0.020766140095365349938 0.14856902736927335429 0.70776939321785714565;0.20811864494555878946 -0.11993895238359927879 -0.44730759942471914892 -0.089646305530499084679 -0.46456770012880282961 0.52418746965898455059 0.40483876346373576238 0.2995331018110443666 -0.39014967660037530583 0.29392041515234718085 -0.015283447947086825983 -0.050292564738915662703 -0.24323220632511757811 0.152367952921017763 -0.1934887514381249396 -0.28537205486405076149 -0.54478419461000116009 0.59793320129407201424 -0.034636462514817736857 0.014602900580602784855 0.39771165619620885145 -0.12546057334094321001 -0.096543174051063176955 -0.80933989320312316185 0.47745919173144069081;-0.16868124078193225124 0.48509224907738041077 -0.28905253949851283934 0.040988774791745931358 0.38914226884776864646 -0.86515086476524349912 0.44409786377142024261 0.92613579199902451577 -0.3968502764947811623 0.19456270348941409609 -0.096672036605944561272 0.77337511026450156404 0.67954501003105738377 0.74672121179503714306 -0.49124616373377438805 -1.0797324468383087126 -0.09561944155642468357 -0.63861418406307879359 0.37479381040054043916 -0.11348054205485584578 -0.42282760395597218661 -0.270829573509679844 0.16669218755028869516 -1.0430141254852629551 -2.982239220762128884;0.1964763016063020562 -0.76858954357098197008 0.77457559070821346836 -0.40580677464933434528 0.01325174701629074081 0.78652805495191113749 -0.088601205974918814667 0.46385986765492243089 0.35447963551927919035 -0.019270426717156178414 -0.42475245496178293259 -0.75373032728147715265 -0.33960148221492025833 -0.53571583005969236613 -0.0092885572815307772265 0.66332336986658479994 -0.19322289991294616662 0.8050110195226052312 -0.45495654485289926949 -0.66949691874390382385 0.27685724986626308874 -0.19056219633269574909 -0.31386810646599100361 0.92869336716234585083 2.9965006150444009059;-0.21109052915065090739 -0.40713000835492940688 0.069794356234459856148 0.24354272586234865239 -0.39534327745311298452 -0.0036119304775055925336 0.037358484454473192549 0.32759046658137919161 0.20766649405119805283 0.13912315534633770686 -0.11425513756836151724 1.1254997348861079942 -0.13572415855814101704 0.2148550917629506174 -0.42686840003620013517 -0.081945754839173198802 -0.081203284599003972 -0.13932090232988728062 0.089183076598822533243 0.32235953667250766275 0.47522355729790349832 0.16830207502155014598 0.062826371258130925268 -0.18051017426690271761 0.68776609600445504089;-0.029487350052124824268 0.48595751748094534461 -0.34614526248099708461 -0.26806844219254244432 -0.029970578905306376194 -0.17578582232574649358 -0.01335115919819282633 -0.064243745405169916385 0.20776617805850616794 -0.022522259940427339503 -0.30790518158526081205 -0.19741663357459249273 0.34450153012405554387 0.24060110259555453349 -0.55901407055749374742 -0.18151241305163473561 0.12112293446151993492 -0.17019269546303247842 0.34535929588636138377 -0.37292707861225299348 -0.0098490272786777004893 0.45222072714399008664 0.22689801313466231858 -0.25579181467212130929 -0.83112194652320037225;0.10941955264650964075 0.30619695785225375939 -1.1049244846490944294 0.026403508989472065926 1.326483804505904418 -0.17698387360862802287 0.13300666541628733408 -0.30651208236794585948 0.8192186800886631648 -0.50059268773821596898 -0.050869249113669370854 -0.030805938423318104252 -0.63165957235929981461 -0.67425326936611795769 -0.30582181255532386865 -0.18294689438712749552 0.51177786544236436583 -0.98137582859977590122 0.12218527067716050682 0.05721554038665647296 -0.4542854177858337561 0.17325856761065389078 -0.57422744754297017078 -0.44462754650455482697 -0.83496953330378009817;-0.079125130399127885372 0.43120057792336347058 -0.42815396192788002239 -0.57348444307004209364 -0.045711789128450815156 -0.15392745615956893168 0.03231093770487623168 0.14758662710476466717 0.32626357044716858269 -0.00081633848137363561673 -0.013956548504334174293 -0.12675561172362515006 0.10432463066537586704 0.31458070011213967732 0.0097724443590989067826 0.06892137190165617544 0.12201323660372533075 -0.20473186674922982942 0.384144229377448021 -0.012684933047917401616 0.087335709572466543871 0.24783772989769492501 0.72831676382162835459 -1.1073481497853983058 0.54303427833970097094;0.098929121993458948858 0.042363984783981685489 0.022352691968359650332 -0.074362133167075378237 0.6437085078567728047 0.015251115467376362422 0.042072873826469056602 -0.19358526737193645917 -0.16173153709748155915 0.084156041546387547192 -0.093077299296514731664 0.054127415678393880905 -0.13237252423488748976 -0.16557068093157473188 -0.041854107016935995778 0.043692397091825450894 -0.096609326100000503246 0.20829439866781362944 -0.060937263021294242604 -0.063500892448800985712 -0.13796382211410943008 -0.16036749419113874304 -0.2613204329255176539 0.44097516201213665665 0.65677138973462323435;0.3000421815618467547 -0.24801044658386459107 0.11919960628098197342 -0.2846717028978903441 0.12058896962609244596 0.051045500484286750187 0.013707164731937834107 0.34187934011027537595 0.18937789884532754692 -0.085376030247091450054 -0.063324818091927054242 -0.10204828681457649153 0.19135341400108193954 -0.19221930834970152313 0.53850635815399394701 -0.088342233587926310978 -0.51207103687290322913 0.048785807140054308906 -0.063070793920051548831 -0.011771971550708065085 -0.052578073994524701651 -0.052724811882540675856 0.17235238653786524865 0.14158448907424717178 -0.24082104193737319253;-0.36899931265474389397 0.21363997474653595443 -0.55428722523624296414 0.27931572996960840616 0.46383443170408156231 -0.23690875327859731159 0.10752724223652766755 0.046276423024942774098 -0.022759182751399993638 0.024500319509826593706 -0.14705141441729971397 0.68812743105584428527 -0.54629937710632126002 -0.077728119214448318508 0.11402338062673263164 -0.094204065105539872005 -0.18790338529655309374 -0.22960874962712257696 0.1498333277430824173 -0.1112368764824507722 0.02886198500987924645 0.056530174955242110113 -0.076198863571509359294 -0.78759348848999088943 0.64957482807513855505;0.22303101935544092371 -0.071278364566617055664 -0.026624174870656124037 0.06356005625184310559 -0.19031325592572012617 -0.015481642483113473158 -0.03414157367367047502 0.16169035253802718777 -0.20423719276295634883 -0.03368036346181300239 -0.10515748833232360648 0.10270104553718908957 0.097784609438012634608 -0.24451898745663583346 -0.0016146230314138545169 -0.44838023427157858158 -0.26466893490486032015 0.032106112439061945674 0.032301737289787475771 0.0095534491906317797749 -0.14381994287615709749 -0.092059828996371065313 -0.080848327865760030719 0.29824878658382308894 -0.29412290681752267796;-0.065453995458184935363 0.056394240936218080484 -0.083670415060081562708 0.13946716114003529507 -0.07073956153552524162 -0.070047172882966537988 -0.17318071684822175516 -0.0036310904106041153906 -0.043436869783939513479 -0.15880895729000341077 0.053305942686131480013 -0.031872218024147545845 0.059342112320430587258 -0.045780341351752129597 -0.13197081411127017936 -0.31422160712810753846 -0.062588970489835207833 -0.017967781020147493426 0.048048316027120008265 0.020534213805591772922 -0.054863785143832881352 0.015388420221548862465 -0.073684611638966987512 -0.055181909247408386654 0.40960094319855189227;0.27372747240678846348 -0.0051029748360226310361 0.75255150877369858531 -0.124633309391762509 -0.63637870153682052354 0.92450029641972653049 -0.39582579756024588447 0.14559916824681229386 0.27252442831223683273 -0.2491814083533794022 -0.408219871137680268 -1.3334000228640490171 -0.44813137004254377516 -0.59107095343226456752 0.076133666385517745345 1.2751214050670864886 0.29489230600722832198 0.98678958952078077438 -0.24842423912081684767 -0.83787562488294897722 0.25184497239031972127 -0.21167403797517886366 -0.044175805991296897279 1.0166142263567603532 3.0150158697591251666;-0.082603038261027245115 -0.013118858185192703789 -0.034362640354176091084 -0.06086810372153466514 0.0057464089384540511726 0.0084708785182229622002 -0.044291846359936652699 -0.0081013682714537963575 0.033363136678775273669 0.017326496845260930951 -0.035850769696044892942 0.028684809827759404771 -0.031135032176481152594 0.03229660574917223026 0.053311282770469488324 0.058119014165551700912 0.05320542249835764903 -0.0092624873589738695306 0.047425514574399994794 -0.053348780599047525286 0.0036344130942726465133 0.039843537803869739922 -0.034904562115096779418 -0.059243649941713133478 0.03827456323597672877;-0.4706705747920326699 0.52036874561042845144 -0.5155027465300939804 -0.5317669447798746285 0.085656433677132853832 0.024089803981212673523 -0.22034415822437394827 0.036470424246406764335 -0.22772085497187047332 0.10162144499480434134 0.37797842590788915951 -0.38486855821899257357 0.0007083618696107539742 -0.22757653253872420218 0.38805944789999086142 0.34187412139692674451 -0.026011873759537177536 0.12216479411250898146 0.06868447104766682576 -0.03655229110023241329 0.26416317942303613187 0.36190909165441292883 -0.57299926594505135036 -0.09614629607351288243 -0.25997329590321044401;-0.34835569695364987375 1.210638491314943721 -0.47436111918911461061 0.38959474602258648002 -0.2852479173474460894 0.1728668636447951712 0.11246282180238174886 -0.31661729248779874046 -0.057360752065168517377 -0.10488157735303688112 -0.72603955154502175517 0.52610802011110424647 0.1718919470744006972 -0.12474230484689431686 0.15587338954811627567 -0.58479121883198281751 0.26142851204942307852 -0.02421364187140603863 0.55340893791222578457 -0.080393168206867635095 0.48968446338037557863 0.046176802491770224668 -0.6270330895257827386 -0.42090203653914265436 -0.83177798879497877316;-0.19996423124445247832 1.0299880055719086158 -0.048658368911310534433 0.24569104687727350012 0.18139280938643162489 -1.3383306100957745866 0.12919475245584569056 -0.10003896067905587719 0.67415819607594229534 0.10609779009726727494 0.10891497445038740566 -0.28495815134610924524 -0.30338729995157920349 0.32159614491686955295 0.72221172775421227374 0.080731138566613847019 -0.082067640505702699194 -0.44715565853750222081 0.021940708846754291422 -0.097757447870371286247 0.019158102195797426653 0.23139679008324717802 0.053564041346716717573 -0.22976844728238679516 0.56549621477342282283;-0.040919190094782162403 0.069664923533523034904 -0.084621986361771900365 0.083121991100460854152 0.017550254673208816325 -0.022657008435691856907 0.080018074579963502369 0.31073292207336783433 -0.13190735513925380684 -0.082904516998112742776 0.11328214145375226085 -0.037750642977831795621 -0.17334511090461324212 0.20244233251115395511 0.16122073797562266884 -0.12928146586513664107 -0.047020645008824579758 -0.12350189162217029004 0.011865995965508229631 0.076519642050605296557 0.060136452788687691506 -0.11694195017174442708 -0.035909535995784024054 0.04343607355279746618 -0.12961004889788213523;0.019917024769174618282 1.0942712204688689326 -0.32394340278099253982 -0.010291336684355129744 -0.38622244228858665371 0.38394241709831039566 -0.079249531644442691714 0.13190791153103995081 -0.12225726739626396888 0.11231999521042672352 0.10632591731772010613 -0.44640768809808373252 -0.0063298680015515911002 -0.075042462884957097935 -0.33569320566788357629 -0.15911700220642441272 0.44259410105802654556 0.3419463177554863953 -0.20298334048842070487 0.16238681216263484153 -0.1880643997493580688 -0.30256640395756156936 -0.037887254706898784717 0.23971182511086921996 0.80251859257758961785;-0.087728440346643274395 0.91950287758416127115 -0.53594659292183766119 0.28606846658856649457 0.85753389237967969638 -0.36576723271362343581 -0.24211811479443418049 0.46794495063749119712 -0.46319785436216248664 -0.30904597462291355514 -0.39113297809884800538 -0.024696799515890176246 0.38428917017344937923 -0.78047181673499765875 -0.59331616872083270398 -0.12351796560133032621 0.069516456100973400556 0.36681102881919674941 0.69964044673102854244 0.30198578067758879984 0.388850360713553167 0.53578504157096618066 0.059950330003182117355 -0.27551437816280904824 -1.44388747517162086;-0.04894823311138399996 -0.3833694477468649886 0.27401732766725495072 0.10358193682872127162 0.29936333879242293943 -0.64340454374391464754 -0.2027708536015835894 -0.72966913432373781134 0.05429412514798890449 0.018861719734688000422 0.53218128755752114323 0.16846002939984122682 -0.20316424168461419408 -0.15671591947854196514 0.17663404418048483935 0.047864619666537065734 0.095607293277915769703 0.055788870055797926129 0.034265394441987756524 0.26976531036289919108 -0.10262696469226360863 0.10231637551462108293 -0.69662870172871826924 0.21069312040623119908 0.99854678057226309296;-0.065417580958213136788 -0.16975768848819958179 0.047092195942899144068 0.16248891799808892755 -0.29762410921785509288 -0.065385437389242753725 -0.32955654712403120721 -0.0010257590304739000985 0.075857615173105935602 0.1820444294225169457 -0.27407802013167714694 0.40311837147671109038 -0.031519895719086844788 -0.11188127102957026726 0.15801497477049458729 0.36735836372712549203 0.01813688594125687642 -0.20071572367071177645 -0.60123118626862259717 -0.056666983787871452738 0.079501987357197170803 -0.32555940598600136004 0.25801074269701690378 0.15254810330280602071 1.0440815322606693538;0.17512661731346756966 -0.76681716820625300812 0.79946084611822265664 -0.030811088467946716463 -0.27313271375018838283 0.45749261046826594779 -0.45037692859274219837 0.12414094876953563062 0.46064174325627621487 -0.18513502648201124456 -0.068986074284771617404 -1.1082823366163805368 -0.6760579944961470078 -0.86389480128273155035 0.80488730213191750362 0.97011879698936365202 0.041524411243872544341 0.55220270723591124984 -0.21081483492943664526 -0.57470619761276120485 0.35673536853450410478 0.065357669354361144776 -0.096192848342736295142 0.74056315488911617084 2.9811048014675560758;-0.34171522570039897237 -0.21868117198072428708 0.42601821978110215872 0.4538570858546467357 0.14288120776631349496 -0.37543313577930359504 0.32451688576850651335 0.053430598215803343232 -0.37459423252882162458 0.55454430193681869543 0.014853067787301523633 0.10501521035375767366 0.29951045331495351753 0.11469550416834976836 -0.021015933714027181661 -0.45844814716618798034 -0.61883611550174877358 -0.064169505228677758968 0.097090363879819535642 -0.17360524486973524794 0.44261104758629743472 0.31049620868081018177 0.2684443895502435784 0.011059838153450818679 -0.25316190349523876035;0.4678060062580329248 -1.3958838800857562568 0.012091661412655125424 -0.40355256217627033521 -0.13896325127291458967 0.1093630946616012678 0.16857130343779325177 0.40302570425205019866 -0.49401465455340376476 -0.19181856490227033873 0.12537808158854685248 -0.034775282412897151607 -0.26360173240676498807 0.090352285988302208364 -0.97602901347964787782 0.40425116945114375477 0.063838230558783792823 0.55106895663702626376 -0.28292421445641602329 0.16325025151015715164 -0.054920340727494874888 -0.28378049631384150153 -0.25972155614022746084 -0.037935665511103187908 0.7465983879516190358;0.095954032971960562248 -0.033066482430719378038 0.17839966077314972637 0.2042768450846743078 -0.53636732446490975601 0.046501788754643461066 -0.21677678698632066312 -0.14132838537479253116 -0.29432244831473869384 0.47596369664185994575 0.24854716548693092659 0.062444239310205720828 0.10097030497457559761 0.16120594872916085838 0.17108859850177574047 0.1667731329405940377 0.63675727352916255963 0.24215102239264049699 -0.076607690655395188628 0.014843535014582992515 -0.1294916118781996861 0.22728221682684807137 0.095274268481712984236 0.23138952810660104453 0.069068973098050268078;0.05129445247371067218 0.22211145127596820803 0.029895493487186852039 0.30373680167019367904 0.1472782576244553443 -0.221915501833068185 -0.43648346561477152639 0.40102244620101346051 -0.50913367384933982951 -0.38334948905839499878 0.08780097310038996461 0.026085920126104205491 -0.20321010825848404013 0.14623037583990011745 -0.089514110726442094879 -0.39381045475530324085 0.083467351927444172199 -0.096174493171234887168 -0.22110825628211694394 -0.027966485333621001613 0.00029726025759276106936 0.31941452350116028569 0.26731293726181998283 -0.010675566499100695717 -0.29273848985173123172;0.46056924494714474028 -0.29588979277847288207 1.9055335583068107042 0.096618643434829787342 -1.9899154249782533554 1.0505476984363422144 -0.39718628396635552447 0.81173799965573911752 -1.0543503146405202031 -0.0084996518036540846808 1.2171865782330812955 -2.5343059105556751121 0.12431873060139886356 1.3613865539693748019 -1.7152911956056664522 0.44093732515877637201 -0.47031120941276932657 1.5701507919486987763 -0.13787693170178474955 -0.38372592990739118335 -0.21635355223058685969 -0.73051771480898342048 -0.53681445608269717784 -0.66654236612258499495 2.6062821036566470312;0.10862003568398120867 -1.2806104315626853918 1.0499501148101488823 -0.007686986797499014562 0.23565307597607051959 0.14463875312374474547 0.10540908278453416103 0.19294987535089436204 -0.62459726565644435592 -0.051389523664782381374 -0.26854896838044434171 -0.92828599872515316083 0.14427948418736141756 0.058838791328963441218 0.027270183719450585835 -0.010106379438358976258 0.23972651941252817731 0.26098475134861837121 -0.071981362868931211829 -0.15942952085097950032 0.077819753993851159546 -0.34877593356193992147 -0.088045002552784148997 0.057434081960079846896 -0.4581819797878144418;-0.025573301822606656075 0.085455433599458299754 -0.050867673241562404163 0.0023195112266400958086 0.047342114874398120994 0.027842820444195955087 0.024009113578301138209 0.092628534618275110146 -0.060103961921530085766 0.0094950039049448934497 -0.021888826715783616522 -0.052554247348750048052 -0.085484772220758870054 0.087193042957848035379 0.064632401392509031268 -0.061152071059270000919 -0.032705347677467994094 -0.0071503422571059273294 0.020545122339835037578 -0.026140877455658191597 0.02474097840563944592 -0.0023258633497073360683 0.032340684788213940049 -0.025928597179736154188 -0.12970940587580903625;0.15491816459958632213 0.032003557495677188716 0.021818977212729136206 0.19117430654245401445 0.062339087665160830554 -0.062397022583021197195 0.21491514196012581617 0.18187621955319349665 -0.2628865184745541872 0.34528826213733154749 0.094926267909863026873 -0.0083479248523618335143 0.1733198662797602041 0.049707203623526687031 -0.0009753924795775111142 -0.13105030630817843251 -0.15651478802420246139 0.032939051158524489116 -0.06357989781252929018 0.059123186810475562847 -0.073863418355397933435 -0.013157811600946586056 0.064243813266156024611 0.072152753794335278137 0.061816525809925602919;0.006795905994271135564 0.098317404207046030229 -0.027766626400815782455 0.048876783121808459187 0.0065288357538839198943 0.0056895135523168799407 0.06475341976224223417 -0.10114840202512807854 -0.015575003575546399193 -0.033645332113876304236 -0.035254073398848173593 -0.076831283416240236939 -0.036990873162048534817 0.093176799349945577111 0.0074587779812137341637 -0.0044117088065114811596 -0.045588749496866150246 -0.05251257809649109709 0.0040206850064386165378 -0.072050303442462826364 0.0025519119744888941158 -0.0047216882593239485263 0.006096654032256104 0.0058140868710036177486 -0.027792903680277054185;-0.14948417410463404886 -0.093048169487537163436 -0.15167077099822368069 -0.030034653312314314733 -0.59343504901087229531 0.24020618460240167336 -0.067155496415937279697 0.060827314695994436078 -0.24259284808575592995 -0.16175412097455593718 0.064332415548793653315 -0.11150133332338463266 -0.089832082352512027112 0.025394682144610231794 0.012138882462723364977 -0.26739531686637285635 0.34098354989360174505 0.18292035819959240328 -0.025614012496231290672 0.31296640243405704496 0.046904179463780552861 -0.24743585403328613448 -0.21224192314022763406 0.10731102366715127017 -0.46810756363759670196;-0.029696157609402758226 0.019483858962636931705 0.034269307764909773262 -0.030331134735742597969 -0.011875524777155109513 0.036137337238615376001 -0.041090305271429074241 -0.25515057569141186278 0.16829622442191960463 -0.0825981323575379206 -0.062612633185788330037 -0.086441103042094888376 -0.02823180394507792193 0.061677612109701143717 -0.081101433621079355163 0.08880719841102961698 0.15862873046596837057 -0.01468661568765520023 0.047816597558113967115 -0.044549632474560438289 0.028732512207587126291 0.050517847067775824288 -0.00010824599304815883162 0.013848777205625287245 0.0063513440313558572337;-0.48552635194390802997 -0.52188049565763106052 -0.7261382353622504171 0.096291426203926971938 0.90242737904334702215 -0.53957497272694920909 -0.55480689335159161235 -0.69655716487500796141 -0.34333815309157622586 0.76815513944284496972 -0.049039753262245786014 0.49236730350632162967 -0.49463350224003960198 0.49151541331220921505 0.29087480872653342923 -1.0078710531037124998 -0.7759690011878107585 -0.20567389211314954234 1.6601329300957476942 -0.21509222847254808042 1.1996200266928611633 0.83285901286147034916 0.23404312862457163358 -1.9753815510257271004 -1.7388748211770750363;0.059845860886858788519 -0.0059219531239665659447 -0.016832726153795284779 0.38638644024192769777 -0.11202051293117801234 -0.10096518425211843673 0.079876120665330022086 -0.012794651099847627329 0.066011360680989866756 0.35029064309868102045 -0.073714407005779927773 0.087424011466182782737 0.031568525035607322704 -0.14291339804511332678 -0.14386086842292292176 -0.0051589788659090292031 -0.18548612441119566308 0.16096242035218621957 -0.021866247517689296059 -0.020324281693373691393 -0.16008495569906469602 -0.015379174330537190296 0.0243402897329147265 -0.19431094414139127302 0.36260179729382180369;-0.25233463445463683028 -0.52230446191823765023 0.355687264333388653 0.13757533995162452012 -0.19086015062967690015 0.12940363674318594578 -0.56681780548482219029 0.28241416523729556687 0.72063583020950106039 -0.10696456186181786674 0.33008290381604860064 0.070312839513734876062 0.80689780546716394216 0.35834661001073375708 -1.2273264774571319702 1.5275949168617009022 0.094522352248753396808 0.73000119807082575196 -0.72130783354807792573 -0.048581174187449664703 -1.0271420014740548776 -0.79764599298177940589 -0.37024100354006622693 0.53219056176411172476 -0.91921251200268871973;-0.15671461913118270304 0.16703735092919630434 0.29869425272216620915 -0.097594546640805426851 0.30331823336642599331 -0.015737706842116009481 -0.11178291158136823003 0.41507438805268748183 0.44615792812385018928 0.16482258450032175046 0.36144911947907149008 -0.057757406520664182625 0.011878305088843419193 0.10486172010598317217 -0.68226648591314942305 0.36375216599587906208 0.16453009449247732454 0.068157136104593174508 -0.019955804390063346804 0.36196204457309366642 -0.36818090804777636738 0.098955601447179297736 0.19837997244759880688 0.29589470519167609952 -0.011971784978249740833;0.0480992404354037284 -0.45611125699448290538 0.58768853995981895633 0.20082395845448225424 -0.04889106169337346236 0.56994434253813319735 -0.13297472633268700437 0.22943136349425491405 -0.16725891630243294728 0.0016504721233223218057 0.065048108425799083809 -0.039357998601555248264 0.33454391407406669501 0.23447435205872399488 -0.59629804446349843339 -0.03731883209454794903 -0.1318619653556542537 -0.5656077391614158234 -0.020980377487517840041 -0.0020540159290615943311 0.32905755776313899696 0.097223496098851308611 0.33145650513472491028 -0.15597861107200014508 -0.34735533377890359663;0.026342072621084615391 -0.11686228507687947131 0.19432586214250238688 0.46700082509299123412 -0.33283736000390462539 0.53149071015406323948 -0.23452840552561010634 0.35197047149452015402 -0.039318368899199492017 0.14489544662791001284 -0.30070678640688780492 -0.09927342038207247199 0.93836634303055976858 -0.076061514146109468482 -0.36564831107841355706 -0.010633757528453800442 0.14783317797782133396 0.1046149080803320669 -0.4501625222104930768 0.33526858655519947705 -0.26107034253347782826 -0.092793962513426461736 -0.17456359583191952134 -0.31159505533209413963 0.50692859011954904958;-0.0433204345714847186 -0.0054906779207896045172 -0.023460637579658584484 -0.00050939615811265400499 0.02389853919411019656 -0.060380777561035915701 0.007156764715749101835 0.11437195774418598693 -0.044857176996833045268 -0.0069634168669623621936 -0.02955650399019683211 -0.055400244035561090061 -0.025506252956838771501 -0.0065613612182411143459 0.040585278641848861192 -0.032831288736656402683 -0.085508885241539461797 0.084595153111626311682 0.042223905225408260578 -0.0054459097231231972519 0.092588774500504678056 0.010090232908493753511 0.014820904033729985147 -0.021665261298478306201 -0.11434031199479799401;-0.0080737107568979483985 0.048013374734627849161 0.11545254178380615073 0.066024361143695045606 -0.10182282586480723152 0.18895189933462019916 -0.091162308706013842063 -0.0064327254014250566383 0.16617374547599811363 -0.053116764938527537276 -0.068461962552230734569 0.17720208701108730587 -0.078970625512982950411 -0.20445468703621472173 0.013075557854683674333 0.026864493689307093749 0.14810669007618371129 -0.13115274487341488374 0.032540210433815171254 -0.011522491349175498568 0.025663904058633654759 -0.007725887275419452728 -0.22160551002365999618 -0.10275343387021797226 -0.21317804363248327171;0.15220708663870718969 0.58357293657958797528 -0.19703592671031869288 0.074185271796517029963 -0.2556322945962262172 0.3903023856246667922 -0.28334002436509564404 0.29408609228302479144 -0.10555584796891513688 -0.084112344331886398918 -0.19067352589502092886 0.082172596460422062115 0.24696057309235025512 0.33472329670559169967 -0.78732062620129528163 0.65922719517348893348 -0.23215482051439656486 0.4438899478226166484 -0.35300326941750731491 0.60565059295872536449 -0.39402276559434940006 -0.38540262885530651715 -0.10427578443675003528 0.74164821492096100197 0.87062720169706042661;-0.27922189616395909351 -0.11509378627816020668 -0.085540789421507237855 -0.25669475797614149659 -0.059631751244729483408 -0.057082204525761542913 -0.1647306510657024492 0.11920090075607342461 0.0083907513150023611131 -0.052802781291590522583 0.010574639131905832004 -0.029752343027370658363 -0.00033051791144051800939 0.016317213820156224735 0.14173047369445251897 0.086021151345989241288 -0.0053257161905884784631 0.050800084219829115539 -0.018494029180163830406 -0.0078384116500910903241 0.089230511098189718711 0.0051160863703178377504 -0.087688429842514542534 -0.066198532487056940821 0.039567931311480564194;-0.081599146267303204749 -0.043176101826281364227 -0.015118781249001941869 -0.01739821667633300456 -0.0039010799965454368878 -0.071780490044737021993 -0.014288748242508393996 0.059126838058632502637 0.00099699307374311691918 -0.047134602892365241866 0.019567653685508664546 -0.071064989346290005634 0.00012351679342326608098 0.04024557577825212118 0.028555972211038446046 -0.030060607159269937122 -0.05731258657218981506 0.06188304191477154298 0.01137057061851162211 0.030059017693007037547 0.079187523067282550304 0.011672508364344941212 0.055538371264172943509 0.029509619436754910837 -0.062832841002971207001;-0.053715505127255744333 0.024475059019509439601 0.28853636718553077323 -0.39509036127540814176 -0.045150958196447224524 0.16825266172095176831 -0.053634122739760398124 -0.12537597010479950566 0.20634266519942431883 -0.26978310420205403597 0.18664676490639142692 0.062874557762035390707 -0.0010085344910844473622 0.38342430016638601176 -0.3266779291417368225 -0.0015140285283373787831 0.097120592453702497826 -0.16282380134909982261 0.008783330964737687957 -0.035917418564351835664 0.045854607619843702759 -0.15481868384857053189 -0.40341685617294159583 0.065944821255620358902 -0.11620376548120141258;0.030735724427261662539 -0.38776523118765038323 0.35936765567620099215 0.073988175886037566009 0.15182574447516550276 0.0074666530477146119543 -0.015508040881311456818 0.14298044343400467815 0.17830750058100372502 -0.26558633139320780847 -0.23384629604310119833 0.023874879016014097927 -0.12156580453222204374 -0.04868661645635055657 -0.23887721624490915184 0.085619005609748152774 0.19336166669535978513 0.10436581781563022964 0.040923734499337512116 0.082283121181376747688 -0.040880391832083945447 0.17800627848432235001 0.083239592381302518476 0.0055475505311858800545 -0.77996423591734220793;0.28963920592748132465 1.1009889642164893964 -0.40322732995805865563 -0.1915899214010371443 -0.90727786867330706411 0.2208572462401955927 0.30693932547226304708 -0.12947146681271576307 -0.31072835665589504384 -0.12341437000168152538 0.22235789196510649668 -0.11573399779533329046 -0.028745451171462935852 1.0620766773067853439 -0.84949122995997572438 -0.16111540913150507182 -0.39584810547209020593 0.42009692690021627204 0.35796677183110553466 0.42713399714717192879 -0.61797214482660023371 -0.17927751207635314601 0.31207190807547435796 0.54063038873477009538 -1.0384692096816219298;0.25273158623214503349 -0.80313412764061786753 -0.36210504930465853279 -0.14265258328536087329 -0.31830236071661727193 0.30132029913695712597 0.44363180614517383482 -0.55728398306696891318 -0.026753766306730729363 0.44071034461187674758 -0.064992562578248799787 -0.49289733292997622849 -0.35387586873107895746 -0.32318093385866775158 -0.030507515841717243454 -0.38633975431837014325 0.64605261518973977619 0.42289255147408155722 -0.00098512275307953618177 0.2380680125634992983 -0.65211976735568366603 -0.056585166703787416476 0.035213349069071558928 0.60634849702862625431 0.37261013471979664846;0.16372142382493443113 0.032146488103134890357 0.0057305463582885381515 0.049271862651975611991 0.0020145637666635260975 -0.033977923872466501976 0.068957568479461051059 0.09602659926164865134 -0.10391935422870669792 -0.017754406504484093743 0.040733688789896589644 -0.039637596625646212556 0.056277087148523363691 -0.052426824131457362699 -0.022553491939442067704 -0.13155994860936148783 -0.16091062704713196552 0.028480418318414375128 -0.042162301170045157761 0.080944168240696612315 -0.014233001990265687492 -0.058540972675993285801 0.078432155072924614192 0.12368830445525580419 -0.057919495729991742061;-0.10767227988292167595 -0.36848526946980170171 -0.060578319052117163279 0.053361330783527789745 0.24373262424528263637 -0.023752852122692347248 -0.10646951196818184304 -0.044673885014517793202 0.39306023048913091289 -0.33958904930919942 0.55032892770667096727 -0.41365529536662137833 0.27737271815915770512 -0.53478001651450701726 -0.28212116568365719349 0.25435982900100867488 0.32451682600904679932 0.073275507460241473545 0.14322748815957281332 0.07457225160123460983 -0.0088517463846925336507 0.21554436247586408748 0.095537042194368801407 -0.16415947504811470581 -0.49308860068993048964;0.14451735653387456915 0.46461996862826260291 0.050007474329224387011 -0.16647061957760167505 -0.9926007733994659521 0.32548700221591636561 0.11703189403263652979 0.51372533460954727946 0.21172239533423062308 0.18567001189284429441 -0.78617761140815212162 0.50305617121568479977 -0.062961129362134785059 -0.21486020830457652764 -0.12668569442130986347 0.251203417895027592 0.12268456693585086392 -0.19881986655225858396 -0.27243160547345257605 -0.059982631335274892714 0.060567911798405545121 -0.16634278078552167113 0.11761107734366206545 -0.08968653674076902671 0.72936159451533277842;-0.028198821695042529389 0.011902579425372403904 -0.020981067096156720553 0.012814989623625929263 0.0013969500128772453784 -0.0022307241111697577625 0.016778655343793615062 -0.0078969941260603419148 0.04814971295668420137 -0.026068176596236357356 0.0057132888196372187337 -0.066378343064643838267 -0.062123891394169267199 0.079697309332870003296 0.023513583812155378766 0.0080591102261553942965 0.0308950305757908876 -0.01672270910210195069 0.039742662209986470701 0.0042743457989017968543 0.042775218657742440642 0.020420596049661860621 0.06752878941691656256 0.013647051884975463024 -0.065663440461803265769;0.23737324404939583178 -0.2746231623214729356 1.1429031230580610767 0.28029818751698432067 -2.0950325277124903778 0.5803544976932726307 0.013247507415719311785 0.88776938038274333387 -0.60352081729870898918 0.082894178770443846527 -0.072427930265298992585 0.31143518002403630662 -0.49912254220697571672 0.30851610504679571889 1.3521841534997234291 0.094727797997289281406 -0.16189661767524890501 -0.13729587849869537286 -1.3792227313980436332 -0.31060244653006036097 0.67716904686084133935 -0.44813805144159707394 1.1632269650432540686 -0.75021435106532319281 1.9779476671978133417;0.25866364149497544922 -0.036444536464429855283 0.13199520231342240506 -0.11942218345064928298 0.3688684121517065706 -0.25999821685637813928 0.0064186629340746400099 -0.022236079869252519531 -0.14379388121953159962 -0.38368611447598477415 0.17328371577786202962 0.13026583253343287927 0.084784524057051405266 0.088863851407520275116 0.12124754381936694858 0.05147049995604894429 0.013370086168559475182 0.23681090828317089003 -0.046267227743566029241 0.098763978764657589515 0.075294117523420578397 -0.10553632100733222055 0.012112425133112400891 -0.20693391951420977981 0.12967977058784477262;-0.13084017520885421471 -0.048441801954000156261 0.055343147263877422171 -0.030139807333632750996 0.016937376432142662447 -0.047866696406000629194 -0.043793330062386247314 -0.08655295601391652105 0.17006378103696995208 -0.12682236750779182777 0.095083279777809392996 -0.19494319343076391138 0.088392486346465640179 0.049697530192756043943 -0.25177753956904808108 0.066963931522794298279 0.11474472212488080747 0.044994017450447336415 0.06667659453074283038 0.13395856005727413418 0.089765103261414194713 0.019340363172522780089 0.094616292816009361921 0.074472146003503866818 -0.02175494273896850031;-0.018628926575769980817 -0.098708955965456035564 0.062860065138841833554 -0.059100912840776405333 -0.035072928084475700483 -0.012103630254954067177 -0.069888856968493853761 -0.14319354313595558659 0.12062252587690565353 0.047427264365257557066 -0.047932373034057278172 0.049406545606899374135 0.051607397796221268771 -0.13711318752234374907 -0.075593782316980093205 0.099812539298314711944 0.068260708194609553967 0.040310570374544864303 0.021700611798596478735 -0.01698098258076433803 0.012618623041915803112 0.080254931156048828211 -0.0042051866049554889951 -0.019036357637809350751 0.14332354597752386405;-0.11437033574474524122 0.53444244288464570758 -0.54962628134968871674 -0.042814442773825921174 -1.0016990019995448691 0.77490313422823031697 -0.25693445148317151094 0.55730536624006077329 -0.6116816130946621799 -0.41154220575526084813 0.24280316496125312065 -0.37805655928104475727 -0.13528651735331556627 0.65961483631801709482 -1.5262623343078196569 0.070949867594450419239 -0.31961472084375941449 0.6859472470964558255 0.96367820440320250963 -0.33161561939481054573 0.32160730333124881719 0.61071653335293141218 0.33477658878754895655 -0.61265054222514558901 -1.5028311393153772624;-0.214883580970178234 -3.9238559467400466478e-05 0.028050990434967493919 0.070107410374137285602 -0.10416539254518342172 -0.064026965860256759844 0.12821430097915256785 0.12856010928888533806 -0.08015840992957574962 -0.03029934952406648091 0.058955220078669705319 -0.061081469937735950737 -0.0018660957105082962015 0.1197936240729232521 0.090563536571433164712 -0.22449379976124705927 -0.19440782159321995382 0.10682705707631066916 0.0040743534736190009649 0.053552503387825238501 0.17685045726152640033 -0.0030146513497571769159 0.14964162995089275165 0.080610219823790976723 -0.13732110684358642128;-0.03380522593445497298 -0.092082928415775117115 -0.0816573902688226827 0.2973158940265095973 0.20997994775875003515 -0.015764915966805809894 -0.058766767913646877908 -0.36580420364045368453 -0.36544256502636340844 0.31522809107416749352 0.31203062866988512392 0.74949550164014266951 0.10167765918003894565 -0.17164620701861099672 0.031890022161939736434 -0.22183603677097260554 0.00094950719376434044357 -0.4633677023063617062 0.015792629115411249002 0.18525516828276128445 -0.21155166268509043026 -0.033041554256596272765 -0.11018853539322397139 -0.35647665398998856778 0.27592488918888802285;-0.038163516110051157182 -0.020631272241102758397 0.0030648947610317570089 -0.0073712795408225513516 -0.0030233186932202434603 -0.029021917823124136065 -0.010701720067747317808 -0.00014684634435883044189 0.024908319160796197483 -0.037444975822359186091 0.011931287451144462555 -0.044918439067062589098 0.0032443212343579359326 0.016247790503716597749 -0.0086311140498534621307 -0.010482243519083150191 -0.0079504411605738761759 0.024233385114113895065 0.0079927074195339856133 0.019785130979321524647 0.041401727061251378248 0.0047526744173147644767 0.019156172791161316105 0.022996192138205771849 -0.021277411761632121501;0.059946572892573699032 0.033277709103601622875 -0.010815801018381598214 -0.02681917935827658403 -0.028311836494137328224 0.01126800411009510651 -0.047538337182240680834 0.084927045938325548824 -0.075543164130431883496 0.019216166172869433848 -0.00082866337169700216101 0.081148725045350186824 -0.0071995083698864290739 -0.068814163662263477805 0.036878941843158201397 -0.031184159072368537735 -0.049663907158735573488 -0.038645679683033659635 -0.024408346207862200578 0.028038941335111582098 -0.064192268871948773845 -0.031596328577296890761 -0.021947114895711265781 -0.013575504507441025354 0.0022254354197757627611;0.0027045419315780108889 -0.10204080902272844034 0.044338902780186151276 -0.060353821382932042183 -0.029117084153404488439 -0.01658318881037280923 -0.027801861517783545835 -0.12025856909871586453 0.067684558472078243385 0.039105370878643297416 -0.023398561204429933064 0.1015574941199042236 0.086500291230023049205 -0.13457865570724120152 -0.032390100406974542402 0.12108445263509920453 0.044111108990631295312 0.029635130345371147459 -0.02248785526754795705 -0.021369811809355276216 -0.075354809533715955139 0.030017226329220571962 -0.052474596533423664702 -0.0015015795970088545268 0.18953359942427008833;-0.042420405045797762722 0.06961636066856581595 -0.08416394515041496216 -0.057682295050519132029 0.029979706187671612688 0.049892922682868469375 0.025790256519993576961 0.096998159435922937099 -0.087109675656072374506 0.16226593371699118973 -0.041695426670496360533 0.12308559088373671742 -0.059633733600472520198 -0.0089577175046661409313 0.11677829014993484913 0.0030225291387659643585 -0.010613051812815878922 -0.041795575698814514676 0.035421584937060740517 -0.072718944762007950433 -0.10399715234783446505 0.022121395917453198776 -0.029379203782604904061 -0.089652647848103880768 -0.085542294268165702809;-0.17734627390907073408 -0.53426192682861761707 0.4977360754932990683 0.29967606491986631401 -0.22485686550423863994 0.22112111217902766236 0.22047093214071405987 0.243427827852761125 -0.31486989156868638862 -0.21567527244332912462 0.26183975668550657501 -0.82017349473886247413 -0.1442020431364061106 0.045866085025905063699 0.0049724147101758387965 -0.23580781653141258403 0.10207785714126774157 0.12227733312610072902 -0.021723117406664622236 -0.0925771503050443062 -0.093188957528205107472 -0.028734044682319444253 0.54649197708721963807 0.10264141040159799334 0.33126019709373427657;0.39108801517305885609 0.15635021116231639926 0.14229531591196845075 0.054362247632554448751 0.078893680494720883067 0.18373114422199141038 0.062537131168179965757 -0.20437585343573444474 0.22187192870060207239 0.074921608696496624913 -0.024497135405991972423 0.142969445954327673 -0.36996343262864656021 0.0088342719612518761513 0.051819063757374134171 0.10353021531945089118 0.17873392070492286066 -0.37971912020786136033 -0.31110110264263118873 -0.041757060250426886183 -0.087392352438872999976 -0.093907179524443148977 -0.069168107864847824806 0.025620598460985546246 0.18845744307747339108;0.23458359228651387562 -0.036461792030637776851 0.48775803394753386444 -0.39552534423255175655 -0.33524153698558878389 1.1541125930666416011 -0.10431501626556365092 -0.10246046581206019743 0.24360119149062731125 -0.032178632201677138946 -0.60318439616546937199 -0.75465234364940947387 -0.32657156809130111208 -0.27294988062224889713 -0.34471399573352345946 0.84817511230590203475 -0.13242377988924128318 1.0238511194349064759 -0.5231244638316324691 -0.26677255942008315515 0.27636306101127605661 -0.20852946242028475021 -0.31148356382338132642 1.1799631861176997916 3.0165159627984610147;-0.003493531107487245907 -0.049810645989861089544 0.051644858148402042475 0.043430147705997727836 0.0078468847072572043416 -0.022716386242092028586 0.023457103928301779178 -0.10317845367031341919 0.084408240171263596019 -0.072233399334057035723 0.040058857948500344037 -0.11353906878074880582 0.04580429248191320718 0.034404873353304270267 -0.11087705744710624201 -0.0020342006994028384928 0.050576304755456269469 0.041433141831993001991 -0.0020433797417685954471 0.03957765340965748585 0.063043518015849217551 0.0074702387923016016352 0.030990764281282657394 0.060751504714788850947 0.02974256997805382885;0.1676529768162575984 0.14409967134617349127 -0.028742346693538579211 0.11448363276863360305 0.057781273125129400947 0.019788326469423647702 0.084580207633700263403 0.051037852208410089405 -0.13346641879618334481 0.08156362078247826608 -0.010173371536534966258 0.069885540730622044969 -0.024947326648879507988 -0.018337440604678203332 0.049375669270046128323 -0.083611293753325571787 -0.086247044712359374752 -0.055185230956929752499 -0.039933570194925216423 -0.023192615215316646216 -0.080094063683472979664 -0.0069861357663464143664 0.015140055455525958453 -0.012043312862929880791 -0.011054237810185800137;0.014672423931033684585 0.73998019047850815966 0.004454286259380049566 0.1039320769098553976 -0.079112186042259891039 0.39063136698659106649 0.017822483645273886482 0.020131046625046913195 -0.052015872521863869282 -0.10720310572344879385 -0.19547708755860718211 0.70095110989113773581 -0.25326019880587258282 0.16850463014402869422 -0.025539989707538943153 0.19645832413299019192 0.049027446740771266076 0.24522441990804560996 -0.11853794080983739989 -0.10021342144507255911 0.033747232265305820986 -0.21037025478629800546 -0.18438060141694620486 0.2446320368771059961 0.82385293819469007648;0.35794053402561154531 -0.90308139958109345802 0.37246158034302323525 -0.22576486855504976359 0.023899549864983396508 -0.78244545244114704907 0.10148176592408908459 -0.12934892625133304067 -0.35394139193124241061 0.088019387840958418501 -0.570898142790549179 0.4228103608989344786 -0.055343130143815387478 0.24414169577906805197 -0.36174330854315323025 -0.18880405396043770105 -0.35454258559884044288 0.21080298514873863081 -0.15830384373500558381 -0.12690174809412441137 0.44523645882978435395 0.2551221944104084538 0.67169076190494947376 0.38959864025770191143 -0.39307466418662562191];

% Layer 2
b2 = [0.087153262163338240942;-0.19024344614124136243;-0.11573930400122235673;0.29626819589370734231];
LW2_1 = [0.024750214194781808286 -0.40371574284103156627 0.23362890500532382254 0.0094054187959201514257 -0.26472610466844953558 -1.3737732423245407887 -0.01952662730332113683 0.059142529960529578725 -0.23223780211393177386 0.13778924117144011885 0.27896023978464568049 0.9356860887898932333 0.060247233148641367306 -0.085511684055092712642 1.1299746087159858732 -0.56757294896844867615 -0.50263433794221823447 -0.71102103436074948206 0.20108663988206529338 -1.3697718302996222395 0.49383206935154672079 -0.40099770852230076645 -0.32208603696635884628 0.43263927801857199329 -0.18782394217648371026 -0.51117898320488663888 0.44105320225687227875 0.23847628802750442389 -0.49188608970854247326 -0.8457283793414097639 2.0071135300372544563 -0.70806807781928859935 -0.61532174301186504106 -0.29932952605409868241 -1.388343184165490074 -0.87536782661049516996 0.96805342851553888295 0.062210825517073936597 -0.95851643903611316588 -0.3842773923897815358 -0.25662974436493807273 -0.35217378614358285649 0.075684506855949129633 -0.76101784084800350172 -1.4697186989229218401 1.1323336825458409916 0.14758557506328917608 1.0793659285871401998 -0.62640009179941102957 0.29113524176823557532 -0.73458037543613496911 2.2009230220830935387 0.80993558425819667246 0.65223159307173805832 0.64088603443950797889 0.7169490024095533931 0.54239546513202807621 -1.119904384021258581 0.12136349276878923009 -0.14244418087715660093 0.075527166569206993785 0.081662504607434058257 0.14715132516985457434 -1.0183878788158784445 -0.48569423967810210208 -0.75898762978760436759 -1.1514189762838840103 -0.48555505402877868759 0.63779932499704927729 0.13804341255932614518 -0.18206821217519117417 0.2050825053786312635 0.23740369927486362767 0.1804706206899893417 -0.11759718111660928674 0.12001227095684761925 -1.0719234215578150593 0.62061293530704675359 -0.14456171596598879625 0.39883219789582774473 1.4022808372146353673 0.12744558140555731218 0.91369031974555425801 -0.16006235115007344527 0.19269492986598180106 -0.064221459699791955122 2.3580749044161617434 0.3511112388708066967 0.18295841878925503399 0.093992414866030812859 -0.16738046647785900789 -0.20617183184605197832 -0.1061287215447961757 -1.3038892748932568999 -0.081756596050570951029 0.86474083838660376067 0.11543161353534789337 -0.20987627742348463622 0.6775677437487885868 -1.1146369570923468917;0.27748701034271627819 1.0089720684336376255 -0.27307645661166801698 -0.3930654903493298602 -0.4858412210975993073 0.071638320125380600123 0.24609576467150229284 -0.54195580164920365007 0.22827565216799805548 0.037877848833490636304 -0.10384063282638472669 -0.44734863033008692712 -0.03402703004562789707 0.066490741019766902431 -0.024330706335549786429 -0.10020097706049131692 -0.5643012764188727326 0.26970625266452608049 -0.89251959141581937995 -0.77210424562202328858 -0.16337410780199626559 -0.087900852890886407853 -0.37505649307103128276 0.56659816297611365066 -0.51472338193725775124 0.19122999078938468509 -0.10799038508597048891 0.048166464750398547967 -0.61410142906699383136 -0.85388168088037041947 0.29180368095680148111 1.9473812754365442679 0.15568250931080329647 0.49038957336614652505 -0.39866296117289240497 -0.90154187900063165184 -0.12300103094391266756 -0.26322954005632925867 -0.56689298701323520557 0.28190594517967731969 0.071909010809680123932 1.6182749045270203858 -0.17990227738766331744 0.18104116796816002721 -0.096677892384547478577 0.70544528704960174359 -0.135109519860830668 -0.16931195504938958973 0.045453628734214428231 -0.65863152632131249931 -0.073448531464452598838 -1.2346744044831077236 0.35605314055842063325 0.69470698440508737992 0.032846663333294931486 0.34569319398063536042 -1.1098430541746597822 -0.20721297937775889908 -0.10411814693056929693 0.21057106559243524146 -0.010543267007107694905 -0.40660711879117766854 -0.024045992749486089918 2.301647334325417571 -0.02190522984671619891 1.9304394823465624853 0.080696961817163972985 -1.0120546007317727799 -1.2288558763586403533 0.0026378632983833369755 -0.057297409160272760875 -1.0429551375757835086 -0.18252983519424939574 0.064859799919677621483 0.69464034116897610538 0.4375776122944943225 -0.64169111743819706728 1.5260189110523620926 0.26749145803175944369 -0.95381055761631894363 0.59607140352740273226 0.025064519979164527619 1.3148367307569948093 0.45787450252744871237 0.32763725548132793808 0.0035269231921707159226 -0.31718230727569363125 0.25408714476402960436 -0.023694053937922850139 0.0455601511927478664 -0.043076728496114845279 0.033066219420123554862 -0.26357046250934679232 -0.74908513142227306503 -0.42221769035996631336 -2.0555384472719326894 0.18192829715330660623 -0.051219642329920135604 0.37832638569795046246 -1.1699685749592061423;-0.043253648465402409762 0.17531751196932496284 0.51931652394140637163 0.16705057044352411566 -0.25289700925815716825 -0.59358599909245102211 -0.04964551471740322186 -0.10904646152868240072 0.52453173070662495459 0.11178355145569823792 -0.27474287673408837041 -0.93381716626695254746 -0.29680207416893483741 0.10934636903957553611 0.30820633428373306328 -0.092475072017571727234 0.06046594654139405417 0.037905517198399525658 -0.22415883770891734117 -0.17308237403356163675 -0.023354916054354683819 0.22072092099025153455 0.14419554406235363109 0.2780829643246130467 -0.23186341412851879662 0.26904761326409987188 -0.29032011035076776828 -0.1008232453423243552 0.010024494080722212014 0.47600257042718696621 0.45841818621790747512 0.035094436182739899288 -0.075320688750702344261 -0.73089797935636324766 -0.13471600375513634318 -0.029690222587812307997 -0.30362870743754011293 -0.94894958177479482586 -0.12060577781115908169 -0.034794385963999988065 0.083829059424916904653 -0.016280891959155593951 0.045441572438107057097 -0.58614841943976558891 -0.44390397870113257328 -0.55989914819849029293 -0.19946258356111040699 0.35923983372042195272 0.036149456772490061451 0.29082733399233556826 -0.13598781998000808446 0.46817434747830205533 0.24216012685457269371 -0.10095481381655206643 0.040833018046959046465 0.59789139743136276994 -0.029785130341916207092 -1.2074094435714137763 -0.11816634115431787211 -0.25540906054862633212 -0.22273181863697744109 -0.18557854817261221214 -0.033240547147642296455 -0.064405739820674060003 0.23207235609356186012 0.01290001761594113984 -0.10563391895866605652 0.53644599098098177947 -0.58057138604790592407 0.049760934408689019848 0.3663919697375097595 -0.22507603395633857257 0.28569241525576150043 0.03503385806030011318 -0.58723459196678462479 -0.063604378832057217874 -0.11454820140219765245 0.29964919635934295084 -0.065985809554659935472 -0.73967243815271122021 -0.14912499660269321056 -0.04606936795436329668 -0.18290621404372769954 0.42640154060292340121 0.13144641060043749103 0.24026323854150036241 0.041818758601286969145 -0.030758405162076209172 -0.77189064131630313881 0.022095664912754959391 0.034836481179825636023 0.15683391543510971644 -0.054442566157184582587 -0.48765227096548702246 -0.14143903289962808656 -0.02712307739737499987 0.013464347036577527239 -0.20540369722038120948 -0.7947801051750977841 -0.51166460228926846643;0.076881724404477130852 -0.26518502977613050975 -0.24632612553808910794 -0.33741305086482831221 -0.080078093149627160852 0.96817360778113481512 0.39547912584573996497 -0.38344157229468944781 0.4538411611677254931 -0.14687093546398277688 -0.65429466068023511838 -0.91218452705692754101 -0.13782646160019099146 0.53589237509529152881 -0.57876685352949319707 -0.31762740789534416042 0.60872063869819892368 0.35397227522652630061 -0.16495058656283215215 1.0050440953306025715 -0.44512229794635588265 -0.41930298520319431166 -0.079914946182530102736 -0.62139183717463231105 1.4011537922888710472 -0.19588162246230053642 0.66529333576161298058 -0.12683205243810610763 -0.17928487961560579667 0.0034896087012110093423 0.74834834638420344444 -1.803559473401201485 -0.50965062431963137346 0.53680382558528372261 1.0179153444701483089 0.8161766532440344335 -0.58617700332942934693 -0.72050896521063201305 -0.080858038123930969787 -0.47619423948830019722 -0.19757341325333938054 -0.065986788483149733109 0.063696355399278967169 0.48594680747575452751 0.96259465737819993603 -0.10165723632979946356 -0.4333843965941757137 -0.41557683626734359672 0.61186142793424236341 -0.55502616905453339147 0.53412070330330430057 0.86133316173885421385 -0.60653196227643202398 -0.36089890132916674359 0.8031497031452539126 -0.59737475012440832689 -1.5550745277860114069 1.645843349694950275 -0.16178165412013162383 -0.41733173692006370059 0.052521212437056270794 0.47938657802707301814 0.38947320547519082012 0.18234898401510318822 -0.19795473031547719533 -0.038264404580344579809 0.039293533015400942954 -0.022240360108423194718 -0.08370897587232767334 -0.22197309972165996106 0.18055978048278320536 0.024769839509799433663 -0.14197208609903969045 -0.11849677355582431681 -0.030886860501034701931 -0.26759810468981148901 0.13351988238336806591 0.16548469460695272581 -0.22617283195647094884 0.078480802512561328999 -1.0591098830369420902 0.0012345879473442233475 -0.99371616830621622984 0.12055259523048790504 0.22732203700477843222 0.25359186267582778385 -1.8191843323069516458 -0.30320051806858067112 0.84041537542107203063 -0.0056998426373572833731 -0.12276893289051303559 0.22054416650049335491 -0.13764038563815145233 0.85180336007821289002 0.52909337028251834933 1.7209157159760710698 0.15179859215984373155 -0.14305434317642826136 -0.10496889604703937837 0.95761143894510325492];

% Output 1
y1_step1.ymin = -1;
y1_step1.gain = [0.0686659914510841;0.0162136439435149;0.0332810820345391;0.0755478161015061];
y1_step1.xoffset = [-10.3156;-72.196;-32.8459;-5.8542];

% ===== SIMULATION ========

% Format Input Arguments
isCellX = iscell(X);
if ~isCellX
  X = {X};
end

% Dimensions
TS = size(X,2); % timesteps
if ~isempty(X)
  Q = size(X{1},2); % samples/series
else
  Q = 0;
end

% Allocate Outputs
Y = cell(1,TS);

% Time loop
for ts=1:TS

    % Input 1
    Xp1 = mapminmax_apply(X{1,ts},x1_step1);
    
    % Layer 1
    a1 = tansig_apply(repmat(b1,1,Q) + IW1_1*Xp1);
    
    % Layer 2
    a2 = repmat(b2,1,Q) + LW2_1*a1;
    
    % Output 1
    Y{1,ts} = mapminmax_reverse(a2,y1_step1);
end

% Final Delay States
Xf = cell(1,0);
Af = cell(2,0);

% Format Output Arguments
if ~isCellX
  Y = cell2mat(Y);
end
end

% ===== MODULE FUNCTIONS ========

% Map Minimum and Maximum Input Processing Function
function y = mapminmax_apply(x,settings)
  y = bsxfun(@minus,x,settings.xoffset);
  y = bsxfun(@times,y,settings.gain);
  y = bsxfun(@plus,y,settings.ymin);
end

% Sigmoid Symmetric Transfer Function
function a = tansig_apply(n,~)
  a = 2 ./ (1 + exp(-2*n)) - 1;
end

% Map Minimum and Maximum Output Reverse-Processing Function
function x = mapminmax_reverse(y,settings)
  x = bsxfun(@minus,y,settings.ymin);
  x = bsxfun(@rdivide,x,settings.gain);
  x = bsxfun(@plus,x,settings.xoffset);
end
